<?xml version="1.0"?>
<opencv_storage>
<my_svm type_id="opencv-ml-svm">
  <svm_type>C_SVC</svm_type>
  <kernel><type>LINEAR</type></kernel>
  <C>1.</C>
  <term_criteria><epsilon>1.1920928955078125e-07</epsilon>
    <iterations>1000</iterations></term_criteria>
  <var_all>360</var_all>
  <var_count>360</var_count>
  <class_count>2</class_count>
  <class_labels type_id="opencv-matrix">
    <rows>1</rows>
    <cols>2</cols>
    <dt>i</dt>
    <data>
      0 1</data></class_labels>
  <sv_total>1</sv_total>
  <support_vectors>
    <_>
      -1.53141245e-02 -1.01971559e-01 -9.27977785e-02 2.38589753e-04
      1.83422729e-01 1.04974322e-01 1.67043582e-01 2.02747315e-01
      5.42105932e-04 -1.95290893e-02 -2.43877232e-01 -9.51216668e-02
      2.06312947e-02 1.02129392e-01 3.53450119e-03 1.78895891e-01
      7.18347058e-02 -1.04931913e-01 2.36045681e-02 -4.97308016e-01
      -3.91722053e-01 -8.45353901e-02 1.21886097e-02 -9.79684368e-02
      -1.74414366e-01 1.30434960e-01 -8.57942831e-03 1.82224900e-01
      -3.43353719e-01 -3.40080202e-01 -1.29075386e-02 1.52236193e-01
      1.59178704e-01 2.45475117e-02 2.31552988e-01 1.05513193e-01
      -4.43072647e-01 -1.35274783e-01 1.24131970e-01 5.88330440e-02
      1.25100315e-01 2.92148571e-02 1.97910473e-01 -4.40274626e-02
      -3.30100179e-01 -2.96809405e-01 -4.89760935e-02 2.31340334e-01
      1.76645160e-01 1.36168778e-01 1.10873066e-01 1.91091552e-01
      5.22090085e-02 -2.31349275e-01 8.30331072e-02 -1.66364148e-01
      4.73377146e-02 1.73515290e-01 3.23300540e-01 2.51859903e-01
      2.40291566e-01 2.51421839e-01 2.48120390e-02 5.73693700e-02
      -1.05034991e-03 2.39099815e-01 2.28416830e-01 2.16074511e-01
      5.74837215e-02 2.18243599e-01 2.72445232e-01 -2.84189042e-02
      -1.67995200e-01 5.11818603e-02 1.73336536e-01 2.23838743e-02
      3.45136151e-02 8.85934290e-03 -6.68086624e-03 -8.24858695e-02
      -1.36767566e-01 -6.12512454e-02 3.68780419e-02 1.35959566e-01
      7.26194412e-04 5.97851817e-03 -2.00809203e-02 -1.72199771e-01
      -2.70739377e-01 5.87486364e-02 3.24278086e-01 -3.23228389e-02
      6.96906149e-02 3.43546160e-02 3.29573043e-02 -1.51188478e-01
      7.95398504e-02 2.19326597e-02 8.81904811e-02 7.77797773e-02
      -8.29059910e-03 -1.98374297e-02 -5.20866141e-02 -4.31259237e-02
      -9.38322395e-02 -8.32437277e-02 -4.98500206e-02 -5.83604015e-02
      3.43215838e-02 1.00674652e-01 1.57465935e-01 1.05682649e-01
      9.36875790e-02 4.86916974e-02 -8.19397718e-02 -3.43761802e-01
      2.91536301e-02 -6.66311607e-02 1.03389144e-01 1.11797482e-01
      7.28372559e-02 8.60152319e-02 1.19611710e-01 4.35060561e-02
      -1.35343164e-01 5.38484715e-02 -6.09013364e-02 8.13770741e-02
      1.85744792e-01 -5.11341318e-02 -2.43026540e-01 -1.10460259e-01
      -2.26519629e-01 -2.73981661e-01 -8.36519599e-02 -4.11219709e-02
      3.84201034e-04 2.34627336e-01 -4.29969020e-02 -2.40311056e-01
      2.41771769e-02 -7.84223601e-02 -2.04123691e-01 -2.23412979e-02
      1.81233082e-02 1.04804240e-01 -5.31371031e-03 -4.43759188e-02
      1.34252822e-02 1.01173900e-01 1.30738780e-01 -1.82306185e-01
      7.58330449e-02 2.36462399e-01 1.65461287e-01 3.50119993e-02
      4.15333826e-03 8.40580612e-02 9.87286344e-02 1.05414964e-01
      -2.14529246e-01 1.37128308e-01 -1.17030203e-01 3.46535333e-02
      1.38654009e-01 -9.47711170e-02 -1.84092298e-01 7.07985535e-02
      7.68647119e-02 -2.96732545e-01 -1.28148586e-01 -1.56831339e-01
      2.30557881e-02 1.38049722e-02 -1.35735050e-01 -3.49700004e-01
      -9.98098999e-02 3.18075828e-02 -2.73258984e-01 -1.42783791e-01
      7.27171376e-02 -1.51959062e-01 -2.67422497e-01 -5.90181574e-02
      1.12497341e-02 -2.03841716e-01 -6.97180569e-01 -2.31490195e-01
      2.49556974e-02 2.35149518e-01 -4.24668044e-02 -1.65045917e-01
      9.96165425e-02 1.20397419e-01 1.10679701e-01 -3.68924737e-01
      -1.16484262e-01 1.15643442e-01 2.27140829e-01 8.77655149e-02
      -4.84211445e-02 1.34799287e-01 4.23182957e-02 -1.84869707e-01
      -7.92251766e-01 -3.90004158e-01 1.10884689e-01 3.37022871e-01
      1.15256242e-01 -1.34077236e-01 8.19852650e-02 -1.23679698e-01
      -8.97663459e-02 -6.65980160e-01 -5.25328636e-01 2.10228518e-01
      7.74752945e-02 -1.58759672e-02 -1.17133046e-02 1.37681320e-01
      1.38986841e-01 2.25528568e-01 3.58471274e-02 1.86072439e-02
      -8.82984549e-02 1.10547513e-01 9.80068669e-02 1.82179928e-01
      1.60797730e-01 1.83563083e-01 1.02363624e-01 2.02548698e-01
      2.37341106e-01 -1.22689143e-01 5.49602658e-02 -6.47380054e-02
      -2.92733431e-01 -1.88307807e-01 -2.63855487e-01 -2.57398225e-02
      -3.25440586e-01 -3.76069576e-01 -1.66237727e-01 2.15047617e-02
      3.69922407e-02 -6.03889897e-02 -8.52820575e-02 -1.24419115e-01
      6.01820499e-02 2.49938834e-02 -2.52756197e-02 -1.29296318e-01
      -1.39453694e-01 -7.35435961e-03 5.99018559e-02 4.98798154e-02
      8.04345831e-02 5.07327020e-02 2.19037011e-01 2.92090565e-01
      -2.97973286e-02 -2.04866871e-01 -5.94595186e-02 -1.03903964e-01
      -5.59122227e-02 -5.99429272e-02 1.18494891e-01 1.86412200e-01
      3.69930506e-01 -1.35300413e-01 -1.88326791e-01 -1.01315230e-01
      3.45443450e-02 4.19063978e-02 7.21447691e-02 1.00479044e-01
      1.51839063e-01 5.75039685e-02 -2.18635231e-01 -1.60956204e-01
      -2.44201571e-01 -6.97284043e-02 -5.02875522e-02 -1.95902605e-02
      1.62688196e-01 1.70767635e-01 6.21976852e-02 -2.19789237e-01
      -2.15146393e-01 -5.22247665e-02 9.62085556e-03 -4.91717160e-02
      -8.62979367e-02 1.02015980e-01 5.49575016e-02 1.60447598e-01
      -1.53772771e-01 -2.18603671e-01 -1.91211805e-01 -3.57781723e-02
      -9.93040204e-02 -3.26291174e-02 1.14846699e-01 7.57778287e-02
      1.94706053e-01 -9.99677032e-02 -1.08840421e-01 -2.25002214e-01
      -9.56959873e-02 -9.52222124e-02 3.76879424e-02 1.53260857e-01
      8.02746937e-02 5.23987599e-02 -1.08435757e-01 -7.21106678e-02
      -2.15051338e-01 -1.37959525e-01 -7.03532994e-02 8.41528922e-02
      1.02185011e-01 1.15219103e-02 2.03943774e-01 9.65302736e-02
      -1.83133245e-01 -3.65238816e-01 -1.47532359e-01 -9.16734412e-02
      -1.00842170e-01 1.10585444e-01 6.77400604e-02 5.80112217e-03
      -1.16152450e-01 -1.19949996e-01 -2.68841565e-01 -1.67316392e-01
      -1.32559747e-01 -2.56751418e-01 2.65572388e-02 2.78909560e-02
      -1.35916829e-01 -9.75585952e-02 -2.61102542e-02 -1.83951169e-01
      -1.52186230e-01 -2.62484282e-01 1.64781027e-02 5.81901968e-02
      3.37804155e-03 8.29724297e-02 9.09046009e-02 2.27102250e-01
      8.67163762e-02 8.30020532e-02 -9.59992409e-02 1.23980448e-01
      1.18734010e-01 1.10796429e-01 2.21771821e-02 1.64974436e-01</_></support_vectors>
  <decision_functions>
    <_>
      <sv_count>1</sv_count>
      <rho>-1.8307863439857681e+00</rho>
      <alpha>
        1.</alpha>
      <index>
        0</index></_></decision_functions></my_svm>
</opencv_storage>
